
\data\
ngram 1=52
ngram 2=324
ngram 3=61
ngram 4=19
ngram 5=9

\1-grams:
-2.547775	-	-0.30103
-0.8444833	</s>
-99	<s>	-0.6600519
-2.547775	ँ	-0.30103
-1.848805	ं	-0.359022
-1.894562	अ	-0.3679768
-2.246745	आ	-0.30103
-2.371683	इ	-0.30103
-2.547775	उ	-0.30103
-2.547775	ऋ	-0.30103
-2.371683	ए	-0.30103
-2.547775	ऑ	-0.30103
-1.401647	क	-0.5118834
-2.547775	ख	-0.30103
-1.848805	ग	-0.359022
-2.246745	च	-0.30103
-1.894562	ज	-0.4149734
-1.734861	ट	-0.4336556
-1.807412	ड	-0.3521826
-2.547775	ण	-0.30103
-1.672713	त	-0.4074853
-2.246745	थ	-0.30103
-1.848805	द	-0.447158
-2.371683	ध	-0.30103
-1.401647	न	-0.686381
-1.672713	प	-0.4074853
-1.848805	फ	-0.3590219
-1.807412	ब	-0.4259688
-2.547775	भ	-0.30103
-1.417441	म	-0.5563025
-1.848805	य	-0.5118834
-1.236021	र	-0.5862657
-1.417441	ल	-0.5006024
-1.644685	व	-0.4586378
-1.734861	श	-0.4336556
-2.547775	ष	-0.30103
-1.417441	स	-0.6283889
-1.702677	ह	-0.4191293
-2.246745	़	-0.39794
-1.186047	ा	-0.5274265
-1.618356	ि	-0.3679768
-1.371683	ी	-0.509306
-1.702677	ु	-0.3388185
-2.003707	ू	-0.3424226
-1.644685	े	-0.39794
-2.070653	ै	-0.4259687
-2.070653	ॉ	-0.3521825
-1.894562	ो	-0.4149734
-1.149835	्	-0.5708023
-2.371683	ज़	-0.30103
-2.547775	ड़	-0.30103
-2.547775	‍	-0.30103

\2-grams:
-0.2847307	- स
-1.185163	<s> अ	-0.07150935
-1.60771	<s> आ
-2.058388	<s> इ
-2.07406	<s> उ
-2.07406	<s> ऋ
-1.061477	<s> क	-0.332923
-1.464093	<s> ग	-0.1201177
-2.043261	<s> च
-1.378293	<s> ज	-0.2534765
-1.926631	<s> ट
-1.949977	<s> ड
-1.551523	<s> त
-2.043261	<s> थ
-1.962138	<s> द
-2.058388	<s> ध
-1.782828	<s> न
-1.288002	<s> प	-0.06284308
-1.301261	<s> फ	-0.1672788
-1.571124	<s> ब
-2.07406	<s> भ
-1.06303	<s> म	-0.212547
-1.962138	<s> य
-1.22491	<s> र
-1.619955	<s> ल
-1.285398	<s> व	-0.06760469
-1.452496	<s> श
-1.25774	<s> स	-0.2155628
-1.290621	<s> ह
-0.2429612	ँ </s>
-0.9027825	ं </s>
-0.8466386	ं क	-0.4771213
-1.163063	ं ग
-1.187229	ं च
-0.88003	ं ड	-0.4771213
-1.19139	ं ध
-1.140171	ं व
-0.7962756	अ क
-1.138808	अ ख
-1.13161	अ थ
-1.053421	अ न
-1.016296	अ र
-0.797928	अ ल
-0.7726499	आ ए
-0.7084014	आ र
-0.7309812	आ स
-0.5899281	इ य
-0.5983847	इ ज़
-0.2847307	उ स
-0.2918994	ऋ त
-0.5899281	ए ग
-0.5689097	ए न
-0.2841386	ऑ न
-1.157021	क </s>
-1.052124	क म
-1.20032	क ल
-1.427032	क स
-0.7597151	क ा	-0.09817956
-1.191406	क ी
-1.498358	क ु
-1.542242	क ू
-1.486593	क े
-1.268435	क ॉ
-1.529245	क ो
-0.755383	क ्	-0.2084935
-0.2906964	ख ि
-0.9027825	ग </s>
-1.101102	ग ल
-0.8138756	ग ा
-1.091029	ग ी
-0.8739477	ग ु
-1.166998	ग ो
-1.029261	ग ्
-0.7293289	च क
-0.7309812	च म
-0.7478601	च ि
-0.8796039	ज </s>
-0.7978007	ज ं	-0.4771212
-1.00323	ज र
-0.806805	ज ़
-0.8037828	ज ै
-0.8014274	ट </s>
-1.172352	ट न
-0.7464432	ट र	-0.1901662
-1.165663	ट ी
-1.249611	ट ू
-0.9445733	ट े
-0.8815524	ट ्	-0.4771212
-0.7577242	ड </s>
-1.135594	ड क
-1.135594	ड न
-1.139346	ड म
-1.139346	ड ल
-1.128186	ड ी
-1.213098	ड ो
-0.845919	ड ्
-0.2925022	ण ु
-0.7295201	त </s>
-1.018523	त व	-0.4771213
-1.233266	त स
-0.9490318	त ा
-1.276539	त ि
-1.221083	त ी
-1.290409	त ु
-1.324606	त ू
-0.9405529	त ्
-0.6230648	थ </s>
-0.7478601	थ ि
-0.7672174	थ ॉ
-0.7123106	द </s>
-1.067562	द न
-0.7795596	द ा
-0.6392897	द ी
-1.014475	द ्
-0.5543385	ध र
-0.5488618	ध ा
-0.3009938	न </s>
-1.173998	न न
-1.46753	न व
-0.9928938	न ा	-0.1771066
-1.46383	न ि
-1.418388	न ी
-0.9879385	न ्	-0.2007975
-0.7295201	प </s>
-1.309619	प ं
-1.229167	प क
-1.179124	प र
-1.161314	प ा
-1.016018	प ि
-1.221083	प ी
-1.023576	प ु	-0.4771212
-0.9405529	प ्	-0.4771212
-1.097718	फ क
-1.097718	फ न
-1.147669	फ ह
-1.187229	फ ़
-1.040932	फ ा
-0.8841327	फ ो	-0.4771213
-0.8069188	फ ्
-0.4758927	ब र	-0.07068158
-1.114405	ब ल
-1.155298	ब ह
-1.060813	ब ा
-1.105491	ब ी
-1.172111	ब ो
-0.2918994	भ त
-0.7480513	म </s>
-1.211426	म त	-0.4771212
-1.498772	म द
-1.415657	म ल
-0.8887041	म ा	-0.2815945
-1.205901	म ि
-1.214216	म ु
-1.047553	म े
-1.504194	म ो
-0.7998022	म ्
-0.9174251	य </s>
-0.4844702	य ा
-0.796022	य ु
-0.8043855	य ू
-0.9540375	र </s>
-1.390307	र ं
-1.653828	र ग
-1.632786	र ट
-1.619303	र प
-1.328345	र म
-1.653828	र य
-1.041119	र ा
-1.363714	र ि
-0.7503533	र ी	-0.06323725
-1.675942	र ू
-1.367415	र े
-1.683571	र ॉ
-0.732763	र ्	-0.1908447
-0.8226371	ल </s>
-1.511608	ल ग
-1.511608	ल द
-1.511608	ल य
-0.9001859	ल ा	-0.2562879
-1.469547	ल ि
-1.400831	ल ी
-1.487077	ल ु
-0.9491569	ल े	-0.1193417
-1.088144	ल ै	-0.1748539
-1.517964	ल ो
-0.8940545	ल ्	-0.1221338
-1.030407	व </s>
-1.24205	व न
-1.196012	व र
-1.027548	व ह
-0.6196907	व ा	-0.08431203
-0.9925225	व ी
-1.023012	व े
-1.333161	व ॉ
-0.9774162	श </s>
-1.172352	श क
-0.5563154	श न	-0.24302
-1.237697	श फ
-1.211104	श ि
-1.165663	श ी
-0.8815524	श ्
-0.2713129	ष ्
-0.4471001	स </s>
-1.1665	स न	-0.4771213
-1.365763	स र
-1.415553	स ल
-0.9847825	स ा
-1.454972	स ि
-1.46753	स ु
-0.7141402	स ्	-0.1292435
-0.7047496	ह </s>
-1.202541	ह न
-1.206293	ह म
-0.920604	ह ा
-1.245712	ह ि
-0.7984802	ह ी
-1.249858	ह े
-1.127269	ह ्
-0.3398712	़ </s>
-0.678543	़ ि
-0.6097791	ा </s>
-1.783412	ा ँ
-1.702677	ा ं
-1.77246	ा इ
-1.562264	ा क
-1.702677	ा ग
-1.761778	ा च
-1.425303	ा त
-1.761778	ा थ
-1.450322	ा द
-1.562264	ा न
-1.445202	ा ब
-1.370554	ा म
-1.09832	ा र
-0.9181899	ा ल	-0.0389296
-1.650663	ा व
-1.675892	ा श
-1.430193	ा ह	-0.4771212
-1.77246	ा ज़
-0.8769989	ि </s>
-1.43264	ि ऑ
-0.9060882	ि क	-0.1923975
-1.385338	ि ज
-1.348529	ि त
-1.378983	ि द
-1.348529	ि प
-1.283126	ि म
-1.378983	ि य
-1.056413	ि ल
-1.43264	ि ष
-1.283126	ि स
-0.5491729	ी </s>
-1.44267	ी क
-1.530046	ी ट
-1.280324	ी ड
-1.517329	ी त
-1.549848	ी द
-0.9685357	ी न	-0.1269034
-1.266038	ी प
-1.549848	ी फ
-1.225802	ी म	-0.4771213
-1.378983	ी र
-1.225802	ी स
-1.523641	ी ह
-0.8270987	ु </s>
-1.360371	ु ए
-1.31151	ु ड
-1.288998	ु त
-1.31151	ु ब
-1.317326	ु य
-0.9588031	ु र
-1.227715	ु ल
-1.283547	ु व
-1.300108	ु श
-1.366885	ु ड़
-1.035284	ू -
-0.6075753	ू </s>
-0.962827	ू क
-0.962827	ू न
-0.9654014	ू ल
-0.8625706	े </s>
-1.34041	े ं
-1.345832	े ज
-1.324538	े ट
-0.8988295	े ड
-1.252868	े न
-1.314271	े प
-1.257295	े ल
-0.8949484	े श	-0.1694627
-1.257295	े स
-0.5929294	ै ं	-0.4771213
-0.5920268	ै ब
-0.85592	ै म
-0.9326433	ॉ ज
-0.8924228	ॉ म
-0.863528	ॉ र
-0.6212036	ॉ ल
-0.8796039	ो </s>
-1.070097	ो प
-0.5966988	ो र
-1.075694	ो श
-0.7732577	ो स
-1.392484	् क
-0.9053545	् ट	-0.1773221
-1.718711	् ड
-1.804476	् ण
-1.449054	् त
-1.472936	् द
-1.592094	् न
-1.449054	् प
-1.727446	् फ
-1.468054	् ब
-1.598603	् म
-1.313529	् य	-0.1951246
-0.8696506	् र	-0.1669554
-1.598603	् ल
-1.293584	् व	-0.2057547
-1.45845	् श	-0.4771213
-0.8871357	् स	-0.1413118
-1.804476	् ‍
-0.4927788	ज़ </s>
-0.5666359	ज़ ी
-0.2429612	ड़ </s>
-0.2847307	‍ स

\3-grams:
-0.1462306	ज ं क	-0.4771212
-0.1483714	ै ं ड	-0.4771213
-0.6749646	<s> अ क
-0.6754995	<s> अ ल
-0.7880875	<s> क म
-0.5884397	<s> क ा	-0.1352769
-0.820164	<s> क ॉ
-0.7169722	<s> क ्
-0.1395347	ं क ्	-0.4771213
-0.3283111	ि क ा
-0.464701	<s> ग ु
-0.5090094	<s> ज ं	-0.4771212
-0.5101567	<s> ज ै
-0.668363	् ट </s>
-0.6520771	् ट र	-0.4771213
-0.7043377	् ट े
-0.1397233	ं ड </s>
-0.1557663	म त व	-0.4771212
-0.1461208	श न </s>
-0.079174	स न </s>
-0.4824367	ी न ा
-0.6308944	<s> प ्	-0.4771213
-0.5982018	<s> फ ो	-0.4771212
-0.5810465	<s> फ ्
-0.8296018	<s> म त	-0.4771213
-0.8300349	<s> म ु
-0.6553902	<s> म े
-0.1389382	ी म </s>
-0.3335016	् य ु
-0.3242115	ट र ्	-0.4771213
-0.5211557	ब र ी
-0.7682954	् र ि
-0.5241706	् र ी
-0.6511503	ा ल </s>
-0.6488242	<s> व ह
-0.1268627	त व ा	-0.4771213
-0.3558622	् व ी
-0.2914875	े श न
-0.1196115	् श न	-0.4771213
-0.2934336	<s> स ्	-0.06150225
-0.2710539	् स </s>
-0.1352208	ा ह </s>
-0.399857	क ा </s>
-0.3025629	न ा </s>
-0.267411	म ा ल
-0.2351776	ल ा </s>
-0.5592808	व ा ल
-0.4206545	र ी </s>
-0.152849	प ु र
-0.4627799	ल े </s>
-0.2991885	ल ै ं	-0.4771213
-0.1243398	फ ो र
-0.6568951	क ् व
-0.6697505	क ् श	-0.4771212
-0.1477224	ट ् र
-0.3449856	न ् स
-0.1477224	प ् र
-0.5872096	र ् ट	-0.1839918
-0.5840272	र ् स	-0.60206
-0.4697912	ल ् ट
-0.4562547	स ् ट	-0.1875983

\4-grams:
-0.04349267	<s> ज ं क	-0.4771212
-0.04405493	ल ै ं ड	-0.4771212
-0.04172089	ज ं क ्	-0.4771213
-0.3135054	र ् ट </s>
-0.3196488	स ् ट े
-0.04177105	ै ं ड </s>
-0.04598142	<s> म त व	-0.4771212
-0.04346379	् श न </s>
-0.08371961	् ट र ्	-0.4771213
-0.03831244	म त व ा	-0.4771213
-0.03632918	क ् श न	-0.4771212
-0.05358088	र ् स </s>
-0.2523588	<s> क ा </s>
-0.119972	त व ा ल
-0.03762513	<s> फ ो र
-0.1319595	ं क ् श	-0.4771214
-0.04388469	<s> प ् र
-0.1228977	ट र ् स	-0.4771212
-0.3609093	<s> स ् ट

\5-grams:
-0.0134665	<s> ज ं क ्
-0.01348217	ल ै ं ड </s>
-0.01401012	क ् श न </s>
-0.01239904	<s> म त व ा
-0.01177527	ं क ् श न
-0.01713616	ट र ् स </s>
-0.03642836	म त व ा ल
-0.03969209	ज ं क ् श
-0.03723096	् ट र ् स

\end\
