
\data\
ngram 1=47
ngram 2=333
ngram 3=69
ngram 4=14
ngram 5=0

\1-grams:
-0.8689992	</s>
-99	<s>	-0.6481917
-1.759377	ं	-0.4771212
-2.095169	अ	-0.4259687
-2.174351	आ	-0.30103
-2.095169	इ	-0.3521825
-2.572291	ई	-0.30103
-2.572291	उ	-0.30103
-2.572291	ए	-0.30103
-2.572291	ओ	-0.30103
-1.551101	क	-0.4499691
-2.174351	ख	-0.3679768
-2.095169	ग	-0.3521825
-2.396199	घ	-0.30103
-2.028223	च	-0.39794
-1.794139	ज	-0.3756636
-1.970231	ट	-0.3357921
-1.669201	ड	-0.4586379
-1.697229	त	-0.5228788
-1.873321	थ	-0.4471581
-1.618048	द	-0.4607308
-2.396199	ध	-0.30103
-1.317018	न	-0.5929166
-1.794139	प	-0.50515
-2.095169	फ	-0.4259688
-1.759377	ब	-0.3679768
-2.396199	भ	-0.30103
-1.511593	म	-0.4771213
-1.594567	य	-0.4471581
-1.250071	र	-0.5942346
-1.441957	ल	-0.4771213
-1.572291	व	-0.4357286
-1.831928	श	-0.4771213
-2.396199	ष	-0.30103
-1.511593	स	-0.4771213
-1.794139	ह	-0.4522977
-1.080929	ा	-0.6616458
-1.493109	ि	-0.4220737
-1.293537	ी	-0.6110148
-1.669201	ु	-0.39794
-1.970231	ू	-0.30103
-2.572291	ॅ	-0.30103
-1.493109	े	-0.4423591
-2.396199	ै	-0.30103
-2.396199	ॉ	-0.30103
-1.919078	ो	-0.3679768
-1.220108	्	-0.554881

\2-grams:
-1.391845	<s> अ	-0.1064997
-1.48795	<s> आ
-1.761714	<s> इ
-2.078115	<s> ए
-2.078115	<s> ओ
-1.42797	<s> क
-1.60624	<s> ख	-0.1639902
-1.600993	<s> ग
-2.062744	<s> घ
-1.754228	<s> च	-0.4771212
-1.570778	<s> ज
-1.993128	<s> ट
-1.44584	<s> ड	-0.2656853
-1.911293	<s> त
-1.968132	<s> थ
-1.542529	<s> द
-1.784978	<s> ध
-1.37839	<s> न
-1.570778	<s> प	-0.60206
-1.483948	<s> फ	-0.08589859
-1.565941	<s> ब
-2.062744	<s> भ
-0.9677966	<s> म	-0.06118956
-1.351858	<s> य	-0.2767951
-1.289042	<s> र	-0.1013678
-1.431486	<s> व
-1.302579	<s> श	-0.05160581
-1.161546	<s> स	-0.04782086
-1.570778	<s> ह
-1.187579	ं क
-0.9439017	ं ग	-0.4771212
-0.6394787	ं ड	-0.1200502
-0.928838	ं त
-1.196627	ं द
-0.9158729	ं स	-0.4771213
-0.8826488	अ प
-0.8583803	अ ल
-0.4127986	अ स	-0.2057751
-0.8893562	आ इ
-0.8871089	आ च
-0.8265329	आ न
-0.8526486	आ स
-0.9079621	इ क
-0.6440086	इ ट
-0.8776854	इ न
-0.9121633	इ य
-0.2459548	ई </s>
-0.2906892	उ द
-0.293537	ए ं
-0.2895552	ओ व
-0.8393783	क </s>
-1.404688	क त
-1.431701	क थ
-1.364682	क म
-1.384224	क य
-1.345982	क ल
-1.420693	क ह
-0.8988535	क ा	-0.1766879
-0.8324376	क ी	-0.4771212
-1.478756	क ॅ
-0.9275662	क ्
-0.7834155	ख ी
-0.8180515	ख ु
-0.5236269	ख े
-0.5492669	ग </s>
-0.927196	ग ज
-0.9142792	ग द
-0.9185423	ग ु
-0.5794058	घ व
-0.5917192	घ ो
-0.8122453	च </s>
-0.9495586	च म
-0.4772957	च ा
-0.9195609	च ी
-0.6679168	ज </s>
-1.190653	ज क
-1.243053	ज ट
-0.9484974	ज ब
-1.198315	ज य
-1.179409	ज ि
-1.130471	ज ी
-1.107927	ज ्
-1.003638	ट न
-0.9876984	ट र
-0.9384339	ट ा
-0.7729501	ट ि
-0.9982594	ट ी
-1.037386	ट े
-0.8729431	ड </s>
-1.251422	ड ल
-0.6929703	ड ा
-1.008191	ड ि
-0.9802588	ड ी	-0.4771212
-1.29304	ड ु
-1.008191	ड े	-0.4771213
-1.190901	ड ्
-0.7199631	त </s>
-1.227407	त म
-0.5608259	त ा	-0.1504643
-0.9600367	त ि
-1.224473	त े
-0.927852	त ्	-0.4771213
-0.5807481	थ </s>
-1.101943	थ ड
-1.083941	थ म
-0.7632121	थ ा
-0.7931066	थ ी	-0.4771212
-1.069234	द </s>
-1.292659	द ल
-1.172683	द ा
-1.055298	द ि
-0.7658497	द ी	-0.2897726
-1.07398	द ु
-1.37501	द ू
-1.055298	द े	-0.4771213
-0.8657041	द ्	-0.2133614
-0.5620967	ध न
-0.5353624	ध ा
-0.6067987	न </s>
-1.327935	न ं
-1.595541	न ज
-1.556414	न य
-1.448161	न र
-1.595541	न ह
-0.8942374	न ा
-1.14247	न ि
-1.008355	न ी	-0.69897
-1.294511	न े
-1.651657	न ै
-0.9978899	न ्
-0.9798363	प </s>
-1.159935	प ड
-1.096529	प र
-0.8510985	प ी
-0.4046964	प ्	-0.3920391
-0.5668955	फ र
-0.5511013	फ ा
-0.830942	फ ्
-0.9764796	ब </s>
-1.224264	ब क
-0.923234	ब र
-1.22846	ब व
-1.079929	ब ा
-0.9625438	ब ि
-0.9316672	ब ी
-1.27751	ब ो
-1.134087	ब ्
-0.5353624	भ ा
-0.5838431	भ ु
-1.115373	म न
-1.309408	म र
-1.373134	म ल
-1.391834	म स
-0.8271685	म ा	-0.1277301
-1.110347	म ी
-0.7995467	म ु	-0.08909953
-1.470148	म ू
-1.146816	म े
-1.464464	म ो
-1.0932	म ्	-0.4771213
-1.353399	य द
-1.276331	य न
-1.313158	य ल
-1.344129	य व
-0.6814905	य ा	-0.05189844
-1.362871	य ु
-1.123474	य ू
-1.081429	य े	-0.4771213
-0.9529364	य ो	-0.1960925
-1.242384	य ्
-0.5673833	र </s>
-1.393052	र ज
-1.614118	र द
-1.652262	र प
-1.602113	र व
-1.658959	र श
-1.652262	र ह
-0.9506423	र ा	-0.2559729
-1.351232	र ि
-0.9835606	र ी	-0.0848918
-1.407938	र ू
-1.202569	र े
-1.672669	र ो
-1.15565	र ्
-0.8308158	ल </s>
-1.455785	ल क
-1.490334	ल त
-1.50249	ल ब
-1.352787	ल र
-0.683708	ल ा
-1.439489	ल ि
-1.165969	ल ी
-1.534456	ल ू
-1.568963	ल ै
-1.568963	ल ॉ
-1.527871	ल ो
-0.9113522	ल ्	-0.2893415
-0.9346341	व </s>
-1.401052	व ं
-1.360103	व क
-0.9185958	व र	-0.60206
-1.350442	व स
-0.884613	व ा
-1.105423	व ि	-0.4771213
-1.068954	व ी
-1.38524	व ु
-1.345691	व े
-1.051807	व ्
-1.118972	श क
-1.113905	श म
-0.7931753	श ा
-1.111393	श े
-0.4517167	श ्	-0.2894867
-0.5353624	ष ा
-0.5599808	ष ी
-0.9760268	स </s>
-1.401496	स क
-1.115373	स न
-1.442445	स ब
-1.49974	स भ
-1.309408	स र
-1.054176	स ा
-1.146816	स ि
-1.169118	स ु
-0.9930268	स े
-0.7654942	स ्	-0.09871738
-0.6493821	ह </s>
-0.6866301	ह ा	-0.2100431
-0.8894556	ह ि
-1.114765	ह ी
-1.153892	ह े
-1.220108	ह ॉ
-0.6065704	ा </s>
-1.168159	ा ं	-0.08416511
-1.562382	ा इ	-0.4771213
-1.872764	ा उ
-1.863412	ा घ
-1.827897	ा च
-1.803046	ा थ
-1.510143	ा द
-1.058356	ा न	-0.2983738
-1.787235	ा प
-1.490104	ा म
-1.245456	ा य	-0.1026923
-1.117153	ा र	-0.04500829
-1.010456	ा ल	-0.1196079
-1.502016	ा व	-0.4771212
-1.490104	ा स
-1.535478	ा ह	-0.4771213
-1.106868	ि </s>
-1.473507	ि ं
-1.424072	ि क
-1.514666	ि च
-0.9366439	ि त	-0.1070431
-1.22827	ि थ
-1.441957	ि द
-0.8984481	ि न
-1.412545	ि म
-1.435913	ि य
-1.316041	ि र
-1.023387	ि ल
-1.486798	ि श
-1.412545	ि स
-0.3552904	ी </s>
-1.676462	ी ई
-1.321472	ी क
-1.596437	ी त
-1.625498	ी थ
-1.57989	ी द
-1.136518	ी न	-0.60206
-1.574512	ी य
-1.262921	ी र	-0.4771213
-1.154429	ी ल	-0.197472
-1.5692	ी व
-1.619528	ी श
-1.026489	ु </s>
-1.359039	ु च
-1.052725	ु ड
-1.304181	ु द
-1.003151	ु न
-1.333241	ु प
-1.328261	ु ब
-0.9893187	ु र
-0.8714139	ु ल	-0.1855822
-1.294911	ु व
-0.8568842	ू </s>
-1.099848	ू ज
-1.114733	ू ट
-1.107227	ू थ
-1.099848	ू प
-1.001998	ू र
-1.071525	ू व
-0.2952547	ॅ थ
-0.7265038	े </s>
-1.208731	े ं	-0.4771212
-1.212139	े ज	-0.4771212
-1.44962	े ड
-1.201993	े त	-0.4771213
-1.437954	े द
-0.9968141	े न
-1.513169	े फ
-1.410091	े म
-1.185593	े व
-1.480233	े श
-1.410091	े स
-1.473935	े ह
-0.592856	ै ट
-0.5849596	ै त
-0.5620967	ॉ न
-0.5761074	ॉ स
-0.8099336	ो क
-0.7864525	ो न
-1.019883	ो र
-1.08143	ो व
-1.072505	ो स
-1.106165	ो ह
-1.244011	् क
-1.738527	् ख
-1.68047	् ज
-1.71269	् ट
-1.41166	् ड
-1.657783	् त
-1.696281	् थ
-1.252622	् द
-1.525431	् न
-1.270372	् प	-0.1367141
-1.152281	् ब	-0.1232042
-1.249732	् य	-0.1853573
-0.7077503	् र	-0.09693105
-1.121209	् ल
-1.395251	् व
-1.469722	् ष
-1.68047	् ह

\3-grams:
-0.5588292	ा ं स	-0.4771213
-0.1289407	े ं ड	-0.4771213
-0.2840344	<s> अ स	-0.1205851
-0.1294045	ा इ ट
-0.2841692	<s> ख े
-0.1187458	ं ग </s>
-0.1091694	<s> च ा
-0.131782	े ज </s>
-0.2459622	<s> ड ा
-0.4645331	ं ड </s>
-0.43488	ि त </s>
-0.1511805	े त ्	-0.4771212
-0.5161971	ा न </s>
-0.4364815	ा न ी	-0.6020601
-0.09053931	ी न </s>
-0.0713705	<s> प ्	-0.60206
-0.2537317	् प ्	-0.4771213
-0.3958893	<s> फ र
-0.4725536	् ब र
-0.8186886	<s> म ा	-0.4771212
-0.6077914	<s> म ु	-0.08724077
-0.5556116	<s> य ू
-0.5349264	<s> य ो	-0.4771213
-0.4260281	ा य ा
-0.3157962	् य ा
-0.6194248	<s> र ज
-0.08740865	व र </s>
-0.465252	ा र </s>
-0.1209462	ी र </s>
-0.8268347	् र ी
-0.7344636	् र े
-0.6417214	ा ल </s>
-0.6620049	ा ल ्	-0.4771212
-0.3381369	ी ल </s>
-0.3161775	ु ल ा
-0.1506593	ा व र	-0.4771213
-0.5934601	<s> श ा
-0.7826529	<s> स ु
-0.1537299	ं स </s>
-0.3559088	अ स े
-0.1299492	ा ह </s>
-0.3019283	क ा </s>
-0.3299571	त ा </s>
-0.4847198	म ा ल
-0.4786195	य ा </s>
-0.4649828	र ा </s>
-0.5665348	र ा य
-0.3659838	ह ा र
-0.1516659	व ि त
-0.3183743	क ी </s>
-0.4477066	क ी ल
-0.0895045	ड ी </s>
-0.0895045	थ ी </s>
-0.2803851	द ी न	-0.60206
-0.05146231	न ी </s>
-0.2672218	र ी </s>
-0.5745549	म ु न
-0.1371308	ड े </s>
-0.1621541	द े व
-0.1371308	य े </s>
-0.3353936	य ो क
-0.1354895	त ् र
-0.374319	द ् द
-0.1713406	प ् र	-0.06900323
-0.161062	म ् ब
-0.2796624	ल ् ल
-0.5664212	श ् क
-0.5766015	श ् व
-0.6089415	स ् प

\4-grams:
-0.1073237	े ं ड </s>
-0.02092741	द ी न </s>
-0.02722727	ा व र </s>
-0.516933	प ् र े
-0.04545331	ा ं स </s>
-0.2393823	<s> अ स े
-0.1102219	<s> म ा ल
-0.01230525	ा न ी </s>
-0.3980895	<s> म ु न
-0.08583988	<s> य ो क
-0.04064072	े त ् र
-0.03692092	<s> प ् र
-0.04995997	् प ् र
-0.07482279	ा ल ् ल

\5-grams:

\end\
